-0.003881
-0.018475
0.047333
0.041598
0.009057
-0.012789
-0.007098
-0.045777
0.011326
0.044558
-0.048320
-0.010598
0.011170
-0.050706
0.044524
-0.044373
0.006211
-0.045063
0.013311
0.025607
-0.044707
-0.059822
-0.045364
0.061198
-0.016284
-0.062717
-0.008973
-0.062694
-0.007624
0.019334
-0.031024
0.055762
0.042343
-0.044171
0.018236
-0.000160
-0.003412
-0.037815
0.035136
0.059317
-0.009510
-0.022239
-0.037517
0.029870
-0.055422
-0.041513
-0.044526
-0.052422
0.045180
0.056447
-0.029830
0.049256
0.001018
-0.043147
-0.010316
0.002693
-0.037164
-0.004348
0.009893
0.008821
-0.051552
0.017783
0.050360
0.020090
0.005157
-0.019980
0.063062
0.045256
-0.015092
-0.000051
0.018894
0.045771
0.003554
-0.058887
-0.030597
-0.052574
-0.039755
-0.057423
-0.022819
0.053343
-0.029326
-0.004177
0.051952
-0.063057
-0.007006
0.001330
-0.001295
-0.055404
0.057081
0.034097
0.004551
-0.055744
0.013052
0.020647
0.023210
-0.018838
-0.053593
0.011749
0.037607
-0.007465
-0.019537
0.063342
0.049179
0.001103
0.001783
0.020182
-0.022963
0.029978
-0.041498
0.054435
-0.009362
0.009676
0.055359
0.024943
0.057373
-0.013766
-0.036716
-0.021941
0.047649
0.020097
-0.060364
0.022175
-0.041177
0.007236
-0.033765
0.042749
0.023020
-0.048756
